digraph Tree {
node [shape=box] ;
0 [label="sex=male <= 0.5\ngini = 0.454\nsamples = 984\nvalue = [641, 343]"] ;
1 [label="pclass=3rd <= 0.5\ngini = 0.451\nsamples = 344\nvalue = [118, 226]"] ;
0 -> 1 [labeldistance=2.5, labelangle=45, headlabel="True"] ;
2 [label="age <= 3.0\ngini = 0.169\nsamples = 183\nvalue = [17, 166]"] ;
1 -> 2 ;
3 [label="pclass=1st <= 0.5\ngini = 0.444\nsamples = 3\nvalue = [1, 2]"] ;
2 -> 3 ;
4 [label="gini = 0.0\nsamples = 2\nvalue = [0, 2]"] ;
3 -> 4 ;
5 [label="gini = 0.0\nsamples = 1\nvalue = [1, 0]"] ;
3 -> 5 ;
6 [label="age <= 21.5\ngini = 0.162\nsamples = 180\nvalue = [16, 164]"] ;
2 -> 6 ;
7 [label="age <= 17.5\ngini = 0.064\nsamples = 30\nvalue = [1, 29]"] ;
6 -> 7 ;
8 [label="gini = 0.0\nsamples = 13\nvalue = [0, 13]"] ;
7 -> 8 ;
9 [label="age <= 18.5\ngini = 0.111\nsamples = 17\nvalue = [1, 16]"] ;
7 -> 9 ;
10 [label="pclass=1st <= 0.5\ngini = 0.32\nsamples = 5\nvalue = [1, 4]"] ;
9 -> 10 ;
11 [label="gini = 0.5\nsamples = 2\nvalue = [1, 1]"] ;
10 -> 11 ;
12 [label="gini = 0.0\nsamples = 3\nvalue = [0, 3]"] ;
10 -> 12 ;
13 [label="gini = 0.0\nsamples = 12\nvalue = [0, 12]"] ;
9 -> 13 ;
14 [label="age <= 22.5\ngini = 0.18\nsamples = 150\nvalue = [15, 135]"] ;
6 -> 14 ;
15 [label="pclass=2nd <= 0.5\ngini = 0.48\nsamples = 5\nvalue = [2, 3]"] ;
14 -> 15 ;
16 [label="gini = 0.0\nsamples = 2\nvalue = [0, 2]"] ;
15 -> 16 ;
17 [label="gini = 0.444\nsamples = 3\nvalue = [2, 1]"] ;
15 -> 17 ;
18 [label="age <= 31.597\ngini = 0.163\nsamples = 145\nvalue = [13, 132]"] ;
14 -> 18 ;
19 [label="age <= 24.5\ngini = 0.209\nsamples = 76\nvalue = [9, 67]"] ;
18 -> 19 ;
20 [label="gini = 0.0\nsamples = 10\nvalue = [0, 10]"] ;
19 -> 20 ;
21 [label="age <= 26.5\ngini = 0.236\nsamples = 66\nvalue = [9, 57]"] ;
19 -> 21 ;
22 [label="gini = 0.5\nsamples = 4\nvalue = [2, 2]"] ;
21 -> 22 ;
23 [label="gini = 0.2\nsamples = 62\nvalue = [7, 55]"] ;
21 -> 23 ;
24 [label="age <= 35.5\ngini = 0.109\nsamples = 69\nvalue = [4, 65]"] ;
18 -> 24 ;
25 [label="gini = 0.0\nsamples = 11\nvalue = [0, 11]"] ;
24 -> 25 ;
26 [label="age <= 57.5\ngini = 0.128\nsamples = 58\nvalue = [4, 54]"] ;
24 -> 26 ;
27 [label="gini = 0.15\nsamples = 49\nvalue = [4, 45]"] ;
26 -> 27 ;
28 [label="gini = 0.0\nsamples = 9\nvalue = [0, 9]"] ;
26 -> 28 ;
29 [label="age <= 19.5\ngini = 0.468\nsamples = 161\nvalue = [101, 60]"] ;
1 -> 29 ;
30 [label="age <= 12.5\ngini = 0.488\nsamples = 19\nvalue = [8, 11]"] ;
29 -> 30 ;
31 [label="age <= 7.0\ngini = 0.444\nsamples = 6\nvalue = [4, 2]"] ;
30 -> 31 ;
32 [label="age <= 3.5\ngini = 0.444\nsamples = 3\nvalue = [1, 2]"] ;
31 -> 32 ;
33 [label="gini = 0.0\nsamples = 1\nvalue = [1, 0]"] ;
32 -> 33 ;
34 [label="gini = 0.0\nsamples = 2\nvalue = [0, 2]"] ;
32 -> 34 ;
35 [label="gini = 0.0\nsamples = 3\nvalue = [3, 0]"] ;
31 -> 35 ;
36 [label="age <= 17.5\ngini = 0.426\nsamples = 13\nvalue = [4, 9]"] ;
30 -> 36 ;
37 [label="age <= 16.5\ngini = 0.245\nsamples = 7\nvalue = [1, 6]"] ;
36 -> 37 ;
38 [label="age <= 15.5\ngini = 0.32\nsamples = 5\nvalue = [1, 4]"] ;
37 -> 38 ;
39 [label="gini = 0.0\nsamples = 1\nvalue = [0, 1]"] ;
38 -> 39 ;
40 [label="gini = 0.375\nsamples = 4\nvalue = [1, 3]"] ;
38 -> 40 ;
41 [label="gini = 0.0\nsamples = 2\nvalue = [0, 2]"] ;
37 -> 41 ;
42 [label="age <= 18.5\ngini = 0.5\nsamples = 6\nvalue = [3, 3]"] ;
36 -> 42 ;
43 [label="gini = 0.48\nsamples = 5\nvalue = [3, 2]"] ;
42 -> 43 ;
44 [label="gini = 0.0\nsamples = 1\nvalue = [0, 1]"] ;
42 -> 44 ;
45 [label="age <= 32.5\ngini = 0.452\nsamples = 142\nvalue = [93, 49]"] ;
29 -> 45 ;
46 [label="age <= 21.5\ngini = 0.443\nsamples = 133\nvalue = [89, 44]"] ;
45 -> 46 ;
47 [label="gini = 0.0\nsamples = 3\nvalue = [3, 0]"] ;
46 -> 47 ;
48 [label="age <= 23.0\ngini = 0.448\nsamples = 130\nvalue = [86, 44]"] ;
46 -> 48 ;
49 [label="gini = 0.444\nsamples = 3\nvalue = [1, 2]"] ;
48 -> 49 ;
50 [label="age <= 29.0\ngini = 0.443\nsamples = 127\nvalue = [85, 42]"] ;
48 -> 50 ;
51 [label="gini = 0.0\nsamples = 3\nvalue = [3, 0]"] ;
50 -> 51 ;
52 [label="age <= 30.597\ngini = 0.448\nsamples = 124\nvalue = [82, 42]"] ;
50 -> 52 ;
53 [label="gini = 0.444\nsamples = 3\nvalue = [1, 2]"] ;
52 -> 53 ;
54 [label="gini = 0.443\nsamples = 121\nvalue = [81, 40]"] ;
52 -> 54 ;
55 [label="age <= 37.5\ngini = 0.494\nsamples = 9\nvalue = [4, 5]"] ;
45 -> 55 ;
56 [label="gini = 0.0\nsamples = 4\nvalue = [0, 4]"] ;
55 -> 56 ;
57 [label="age <= 44.0\ngini = 0.32\nsamples = 5\nvalue = [4, 1]"] ;
55 -> 57 ;
58 [label="gini = 0.0\nsamples = 2\nvalue = [2, 0]"] ;
57 -> 58 ;
59 [label="age <= 46.5\ngini = 0.444\nsamples = 3\nvalue = [2, 1]"] ;
57 -> 59 ;
60 [label="gini = 0.5\nsamples = 2\nvalue = [1, 1]"] ;
59 -> 60 ;
61 [label="gini = 0.0\nsamples = 1\nvalue = [1, 0]"] ;
59 -> 61 ;
62 [label="age <= 13.5\ngini = 0.299\nsamples = 640\nvalue = [523, 117]"] ;
0 -> 62 [labeldistance=2.5, labelangle=-45, headlabel="False"] ;
63 [label="pclass=3rd <= 0.5\ngini = 0.393\nsamples = 26\nvalue = [7, 19]"] ;
62 -> 63 ;
64 [label="gini = 0.0\nsamples = 15\nvalue = [0, 15]"] ;
63 -> 64 ;
65 [label="age <= 3.5\ngini = 0.463\nsamples = 11\nvalue = [7, 4]"] ;
63 -> 65 ;
66 [label="age <= 0.583\ngini = 0.375\nsamples = 4\nvalue = [1, 3]"] ;
65 -> 66 ;
67 [label="gini = 0.0\nsamples = 1\nvalue = [1, 0]"] ;
66 -> 67 ;
68 [label="gini = 0.0\nsamples = 3\nvalue = [0, 3]"] ;
66 -> 68 ;
69 [label="age <= 7.5\ngini = 0.245\nsamples = 7\nvalue = [6, 1]"] ;
65 -> 69 ;
70 [label="gini = 0.0\nsamples = 3\nvalue = [3, 0]"] ;
69 -> 70 ;
71 [label="age <= 10.0\ngini = 0.375\nsamples = 4\nvalue = [3, 1]"] ;
69 -> 71 ;
72 [label="gini = 0.5\nsamples = 2\nvalue = [1, 1]"] ;
71 -> 72 ;
73 [label="gini = 0.0\nsamples = 2\nvalue = [2, 0]"] ;
71 -> 73 ;
74 [label="pclass=1st <= 0.5\ngini = 0.268\nsamples = 614\nvalue = [516, 98]"] ;
62 -> 74 ;
75 [label="age <= 41.5\ngini = 0.195\nsamples = 485\nvalue = [432, 53]"] ;
74 -> 75 ;
76 [label="age <= 18.5\ngini = 0.203\nsamples = 461\nvalue = [408, 53]"] ;
75 -> 76 ;
77 [label="gini = 0.0\nsamples = 12\nvalue = [12, 0]"] ;
76 -> 77 ;
78 [label="age <= 20.5\ngini = 0.208\nsamples = 449\nvalue = [396, 53]"] ;
76 -> 78 ;
79 [label="pclass=3rd <= 0.5\ngini = 0.346\nsamples = 18\nvalue = [14, 4]"] ;
78 -> 79 ;
80 [label="age <= 19.5\ngini = 0.408\nsamples = 7\nvalue = [5, 2]"] ;
79 -> 80 ;
81 [label="gini = 0.444\nsamples = 3\nvalue = [2, 1]"] ;
80 -> 81 ;
82 [label="gini = 0.375\nsamples = 4\nvalue = [3, 1]"] ;
80 -> 82 ;
83 [label="age <= 19.5\ngini = 0.298\nsamples = 11\nvalue = [9, 2]"] ;
79 -> 83 ;
84 [label="gini = 0.375\nsamples = 4\nvalue = [3, 1]"] ;
83 -> 84 ;
85 [label="gini = 0.245\nsamples = 7\nvalue = [6, 1]"] ;
83 -> 85 ;
86 [label="age <= 40.5\ngini = 0.202\nsamples = 431\nvalue = [382, 49]"] ;
78 -> 86 ;
87 [label="age <= 36.5\ngini = 0.199\nsamples = 428\nvalue = [380, 48]"] ;
86 -> 87 ;
88 [label="gini = 0.204\nsamples = 416\nvalue = [368, 48]"] ;
87 -> 88 ;
89 [label="gini = 0.0\nsamples = 12\nvalue = [12, 0]"] ;
87 -> 89 ;
90 [label="pclass=3rd <= 0.5\ngini = 0.444\nsamples = 3\nvalue = [2, 1]"] ;
86 -> 90 ;
91 [label="gini = 0.0\nsamples = 1\nvalue = [0, 1]"] ;
90 -> 91 ;
92 [label="gini = 0.0\nsamples = 2\nvalue = [2, 0]"] ;
90 -> 92 ;
93 [label="gini = 0.0\nsamples = 24\nvalue = [24, 0]"] ;
75 -> 93 ;
94 [label="age <= 54.5\ngini = 0.454\nsamples = 129\nvalue = [84, 45]"] ;
74 -> 94 ;
95 [label="age <= 28.5\ngini = 0.475\nsamples = 111\nvalue = [68, 43]"] ;
94 -> 95 ;
96 [label="age <= 17.5\ngini = 0.499\nsamples = 21\nvalue = [10, 11]"] ;
95 -> 96 ;
97 [label="gini = 0.0\nsamples = 1\nvalue = [0, 1]"] ;
96 -> 97 ;
98 [label="age <= 20.0\ngini = 0.5\nsamples = 20\nvalue = [10, 10]"] ;
96 -> 98 ;
99 [label="gini = 0.0\nsamples = 2\nvalue = [2, 0]"] ;
98 -> 99 ;
100 [label="age <= 21.5\ngini = 0.494\nsamples = 18\nvalue = [8, 10]"] ;
98 -> 100 ;
101 [label="gini = 0.0\nsamples = 1\nvalue = [0, 1]"] ;
100 -> 101 ;
102 [label="gini = 0.498\nsamples = 17\nvalue = [8, 9]"] ;
100 -> 102 ;
103 [label="age <= 47.5\ngini = 0.458\nsamples = 90\nvalue = [58, 32]"] ;
95 -> 103 ;
104 [label="age <= 45.5\ngini = 0.435\nsamples = 75\nvalue = [51, 24]"] ;
103 -> 104 ;
105 [label="age <= 30.5\ngini = 0.454\nsamples = 69\nvalue = [45, 24]"] ;
104 -> 105 ;
106 [label="gini = 0.0\nsamples = 4\nvalue = [4, 0]"] ;
105 -> 106 ;
107 [label="gini = 0.466\nsamples = 65\nvalue = [41, 24]"] ;
105 -> 107 ;
108 [label="gini = 0.0\nsamples = 6\nvalue = [6, 0]"] ;
104 -> 108 ;
109 [label="age <= 49.5\ngini = 0.498\nsamples = 15\nvalue = [7, 8]"] ;
103 -> 109 ;
110 [label="age <= 48.5\ngini = 0.444\nsamples = 9\nvalue = [3, 6]"] ;
109 -> 110 ;
111 [label="gini = 0.444\nsamples = 3\nvalue = [1, 2]"] ;
110 -> 111 ;
112 [label="gini = 0.444\nsamples = 6\nvalue = [2, 4]"] ;
110 -> 112 ;
113 [label="age <= 53.0\ngini = 0.444\nsamples = 6\nvalue = [4, 2]"] ;
109 -> 113 ;
114 [label="gini = 0.0\nsamples = 3\nvalue = [3, 0]"] ;
113 -> 114 ;
115 [label="gini = 0.444\nsamples = 3\nvalue = [1, 2]"] ;
113 -> 115 ;
116 [label="age <= 60.5\ngini = 0.198\nsamples = 18\nvalue = [16, 2]"] ;
94 -> 116 ;
117 [label="age <= 59.0\ngini = 0.32\nsamples = 10\nvalue = [8, 2]"] ;
116 -> 117 ;
118 [label="age <= 56.5\ngini = 0.219\nsamples = 8\nvalue = [7, 1]"] ;
117 -> 118 ;
119 [label="age <= 55.5\ngini = 0.32\nsamples = 5\nvalue = [4, 1]"] ;
118 -> 119 ;
120 [label="gini = 0.0\nsamples = 2\nvalue = [2, 0]"] ;
119 -> 120 ;
121 [label="gini = 0.444\nsamples = 3\nvalue = [2, 1]"] ;
119 -> 121 ;
122 [label="gini = 0.0\nsamples = 3\nvalue = [3, 0]"] ;
118 -> 122 ;
123 [label="gini = 0.5\nsamples = 2\nvalue = [1, 1]"] ;
117 -> 123 ;
124 [label="gini = 0.0\nsamples = 8\nvalue = [8, 0]"] ;
116 -> 124 ;
}